{"parameters/layer1.0.weight": {"_type": "histogram", "values": [1.0, 0.0, 0.0, 0.0, 0.0, 0.0, 0.0, 0.0, 0.0, 0.0, 1.0, 1.0, 1.0, 0.0, 0.0, 3.0, 1.0, 2.0, 2.0, 1.0, 4.0, 5.0, 9.0, 9.0, 5.0, 9.0, 6.0, 7.0, 7.0, 12.0, 10.0, 14.0, 11.0, 9.0, 18.0, 4.0, 17.0, 13.0, 17.0, 12.0, 13.0, 10.0, 23.0, 12.0, 18.0, 12.0, 10.0, 12.0, 9.0, 22.0, 8.0, 10.0, 8.0, 7.0, 5.0, 6.0, 1.0, 2.0, 0.0, 0.0, 0.0, 0.0, 0.0, 1.0], "bins": [-0.7690210938453674, -0.7491647005081177, -0.7293083667755127, -0.7094519734382629, -0.6895955801010132, -0.6697391867637634, -0.6498828530311584, -0.6300264596939087, -0.6101700663566589, -0.5903136730194092, -0.5704573392868042, -0.5506009459495544, -0.5307445526123047, -0.5108881592750549, -0.49103182554244995, -0.4711754322052002, -0.4513190686702728, -0.43146270513534546, -0.4116063117980957, -0.39174994826316833, -0.3718935549259186, -0.3520371913909912, -0.33218079805374146, -0.3123244345188141, -0.2924680709838867, -0.27261170744895935, -0.2527553141117096, -0.23289895057678223, -0.21304255723953247, -0.1931861937046051, -0.17332981526851654, -0.15347343683242798, -0.13361704349517822, -0.11376066505908966, -0.0939042866230011, -0.07404791563749313, -0.05419153720140457, -0.03433515876531601, -0.014478787779808044, 0.005377590656280518, 0.025233983993530273, 0.045090362429618835, 0.0649467408657074, 0.08480311185121536, 0.10465949028730392, 0.12451586872339249, 0.14437223970890045, 0.164228618144989, 0.18408498167991638, 0.20394136011600494, 0.2237977385520935, 0.24365410208702087, 0.26351049542427063, 0.283366858959198, 0.30322325229644775, 0.3230796158313751, 0.3429359793663025, 0.36279234290122986, 0.3826487362384796, 0.402505099773407, 0.42236149311065674, 0.4422178566455841, 0.4620742201805115, 0.48193061351776123, 0.501787006855011]}, "_timestamp": 1676001198.9226098, "parameters/layer1.0.bias": {"_type": "histogram", "values": [1.0, 0.0, 0.0, 0.0, 0.0, 1.0, 0.0, 0.0, 0.0, 0.0, 0.0, 0.0, 0.0, 2.0, 0.0, 0.0, 0.0, 0.0, 0.0, 1.0, 0.0, 0.0, 0.0, 0.0, 0.0, 1.0, 1.0, 1.0, 0.0, 0.0, 0.0, 0.0, 0.0, 0.0, 0.0, 1.0, 0.0, 0.0, 1.0, 1.0, 0.0, 0.0, 0.0, 2.0, 0.0, 0.0, 0.0, 1.0, 0.0, 1.0, 0.0, 0.0, 0.0, 0.0, 0.0, 0.0, 0.0, 0.0, 0.0, 0.0, 0.0, 0.0, 0.0, 1.0], "bins": [-0.10092081874608994, -0.09805113822221756, -0.09518145024776459, -0.09231176972389221, -0.08944208920001984, -0.08657240867614746, -0.08370272815227509, -0.08083304017782211, -0.07796335965394974, -0.07509367913007736, -0.07222399115562439, -0.06935431063175201, -0.06648463010787964, -0.06361494958400726, -0.06074526533484459, -0.057875581085681915, -0.05500590056180954, -0.052136220037937164, -0.04926653578877449, -0.046396851539611816, -0.04352717101573944, -0.040657490491867065, -0.03778780624270439, -0.03491812199354172, -0.03204844146966934, -0.029178759083151817, -0.026309076696634293, -0.023439394310116768, -0.020569711923599243, -0.01770002953708172, -0.014830347150564194, -0.011960664764046669, -0.009090989828109741, -0.0062213074415922165, -0.0033516250550746918, -0.00048194266855716705, 0.0023877397179603577, 0.005257422104477882, 0.008127104490995407, 0.010996786877512932, 0.013866469264030457, 0.01673615165054798, 0.019605834037065506, 0.02247551642358303, 0.025345198810100555, 0.02821488119661808, 0.031084563583135605, 0.03395424783229828, 0.036823928356170654, 0.03969360888004303, 0.042563293129205704, 0.04543297737836838, 0.04830265790224075, 0.05117233842611313, 0.0540420226752758, 0.05691170692443848, 0.05978138744831085, 0.06265106797218323, 0.0655207484960556, 0.06839043647050858, 0.07126011699438095, 0.07412979751825333, 0.0769994854927063, 0.07986916601657867, 0.08273884654045105]}, "parameters/layer2.0.weight": {"_type": "histogram", "values": [1.0, 0.0, 0.0, 0.0, 0.0, 0.0, 1.0, 0.0, 0.0, 1.0, 3.0, 1.0, 3.0, 3.0, 3.0, 4.0, 9.0, 7.0, 4.0, 5.0, 8.0, 11.0, 15.0, 23.0, 30.0, 29.0, 40.0, 53.0, 94.0, 117.0, 141.0, 178.0, 258.0, 361.0, 449.0, 624.0, 1060.0, 1185.0, 1283.0, 1333.0, 1349.0, 989.0, 824.0, 648.0, 505.0, 343.0, 254.0, 161.0, 112.0, 67.0, 63.0, 31.0, 36.0, 15.0, 19.0, 8.0, 10.0, 5.0, 2.0, 5.0, 3.0, 3.0, 6.0, 5.0], "bins": [-0.7891966104507446, -0.769547700881958, -0.7498988509178162, -0.7302499413490295, -0.7106010913848877, -0.6909521818161011, -0.6713032722473145, -0.6516544222831726, -0.632005512714386, -0.6123566031455994, -0.5927077531814575, -0.5730588436126709, -0.553409993648529, -0.5337610840797424, -0.5141122341156006, -0.49446332454681396, -0.47481444478034973, -0.4551655650138855, -0.43551668524742126, -0.41586780548095703, -0.3962188959121704, -0.3765700161457062, -0.35692113637924194, -0.3372722268104553, -0.3176233768463135, -0.29797449707984924, -0.278325617313385, -0.2586767077445984, -0.23902782797813416, -0.21937894821166992, -0.1997300684452057, -0.18008117377758026, -0.16043230891227722, -0.140783429145813, -0.12113453447818756, -0.10148565471172333, -0.0818367674946785, -0.06218788027763367, -0.042539000511169434, -0.022890105843544006, -0.003241211175918579, 0.016407674178481102, 0.03605655953288078, 0.055705443024635315, 0.07535433024168015, 0.09500321745872498, 0.11465209722518921, 0.13430099189281464, 0.15394985675811768, 0.1735987365245819, 0.19324763119220734, 0.21289651095867157, 0.232545405626297, 0.25219428539276123, 0.27184316515922546, 0.2914920449256897, 0.3111409544944763, 0.33078983426094055, 0.3504387140274048, 0.3700876235961914, 0.38973650336265564, 0.4093853831291199, 0.4290342628955841, 0.44868314266204834, 0.4683320224285126]}, "parameters/layer2.0.bias": {"_type": "histogram", "values": [1.0, 0.0, 0.0, 0.0, 0.0, 0.0, 0.0, 0.0, 0.0, 0.0, 0.0, 0.0, 0.0, 0.0, 0.0, 0.0, 0.0, 0.0, 1.0, 0.0, 0.0, 0.0, 0.0, 1.0, 1.0, 0.0, 1.0, 2.0, 2.0, 0.0, 0.0, 0.0, 0.0, 0.0, 0.0, 0.0, 0.0, 0.0, 1.0, 0.0, 0.0, 1.0, 0.0, 0.0, 0.0, 0.0, 3.0, 1.0, 0.0, 2.0, 2.0, 2.0, 1.0, 2.0, 1.0, 1.0, 1.0, 1.0, 1.0, 0.0, 0.0, 0.0, 0.0, 3.0], "bins": [-0.12024881690740585, -0.11841169744729996, -0.11657457798719406, -0.11473745852708817, -0.11290033906698227, -0.11106321960687637, -0.10922610014677048, -0.10738898068666458, -0.10555186122655869, -0.10371474176645279, -0.1018776223063469, -0.100040502846241, -0.0982033833861351, -0.0963662639260292, -0.09452914446592331, -0.09269202500581741, -0.09085490554571152, -0.08901778608560562, -0.08718066662549973, -0.08534354716539383, -0.08350642770528793, -0.08166930824518204, -0.07983218878507614, -0.07799506932497025, -0.07615794241428375, -0.07432082295417786, -0.07248370349407196, -0.07064658403396606, -0.06880946457386017, -0.06697234511375427, -0.06513522565364838, -0.06329810619354248, -0.06146099045872688, -0.05962387099862099, -0.05778675153851509, -0.055949632078409195, -0.0541125126183033, -0.0522753931581974, -0.05043827369809151, -0.04860115423798561, -0.046764034777879715, -0.04492691531777382, -0.04308979585766792, -0.04125267639756203, -0.03941555693745613, -0.037578437477350235, -0.03574131801724434, -0.03390419855713844, -0.03206707537174225, -0.030229955911636353, -0.028392836451530457, -0.02655571699142456, -0.024718597531318665, -0.02288147807121277, -0.021044358611106873, -0.019207239151000977, -0.01737011969089508, -0.015533000230789185, -0.013695880770683289, -0.011858761310577393, -0.010021641850471497, -0.008184521459043026, -0.00634740199893713, -0.004510282538831234, -0.0026731635443866253]}, "parameters/fc.weight": {"_type": "histogram", "values": [1.0, 0.0, 0.0, 0.0, 1.0, 1.0, 2.0, 0.0, 2.0, 0.0, 2.0, 3.0, 3.0, 1.0, 9.0, 8.0, 11.0, 19.0, 22.0, 22.0, 38.0, 41.0, 54.0, 63.0, 78.0, 135.0, 143.0, 188.0, 239.0, 322.0, 381.0, 500.0, 619.0, 1133.0, 1279.0, 1500.0, 1518.0, 1463.0, 1394.0, 1187.0, 1004.0, 662.0, 438.0, 301.0, 251.0, 186.0, 119.0, 86.0, 82.0, 51.0, 41.0, 18.0, 17.0, 13.0, 8.0, 2.0, 5.0, 2.0, 2.0, 6.0, 1.0, 2.0, 0.0, 1.0], "bins": [-0.5086306929588318, -0.494918555021286, -0.48120641708374023, -0.46749430894851685, -0.45378217101097107, -0.4400700330734253, -0.4263579249382019, -0.41264578700065613, -0.39893364906311035, -0.3852215111255646, -0.3715093731880188, -0.3577972650527954, -0.34408512711524963, -0.33037298917770386, -0.31666088104248047, -0.3029487431049347, -0.2892366051673889, -0.27552446722984314, -0.26181232929229736, -0.24810022115707397, -0.2343880832195282, -0.22067594528198242, -0.20696382224559784, -0.19325169920921326, -0.17953956127166748, -0.1658274233341217, -0.15211530029773712, -0.13840317726135254, -0.12469103932380676, -0.11097890883684158, -0.0972667783498764, -0.08355464786291122, -0.06984254717826843, -0.05613041669130325, -0.042418286204338074, -0.028706155717372894, -0.014994025230407715, -0.0012818947434425354, 0.012430235743522644, 0.026142366230487823, 0.039854496717453, 0.05356662720441818, 0.06727875769138336, 0.08099088817834854, 0.09470301866531372, 0.1084151491522789, 0.12212727963924408, 0.13583940267562866, 0.14955154061317444, 0.16326367855072021, 0.1769758015871048, 0.19068792462348938, 0.20440006256103516, 0.21811220049858093, 0.23182432353496552, 0.2455364465713501, 0.2592485845088959, 0.27296072244644165, 0.28667283058166504, 0.3003849685192108, 0.3140971064567566, 0.32780924439430237, 0.34152138233184814, 0.35523349046707153, 0.3689456284046173]}, "parameters/fc.bias": {"_type": "histogram", "values": [1.0, 0.0, 0.0, 0.0, 0.0, 0.0, 0.0, 0.0, 0.0, 0.0, 0.0, 0.0, 1.0, 1.0, 0.0, 0.0, 0.0, 0.0, 0.0, 0.0, 1.0, 0.0, 0.0, 0.0, 1.0, 0.0, 0.0, 0.0, 0.0, 0.0, 0.0, 0.0, 0.0, 0.0, 0.0, 0.0, 0.0, 0.0, 0.0, 0.0, 1.0, 0.0, 0.0, 2.0, 0.0, 0.0, 0.0, 0.0, 0.0, 0.0, 0.0, 0.0, 0.0, 0.0, 0.0, 0.0, 0.0, 0.0, 0.0, 0.0, 1.0, 0.0, 0.0, 1.0], "bins": [-0.018180202692747116, -0.01753726415336132, -0.016894327476620674, -0.01625138893723488, -0.015608451329171658, -0.014965513721108437, -0.014322575181722641, -0.01367963757365942, -0.013036699965596199, -0.012393762357532978, -0.011750824749469757, -0.011107886210083961, -0.01046494860202074, -0.00982201099395752, -0.009179072454571724, -0.008536134846508503, -0.007893197238445282, -0.007250259630382061, -0.006607321556657553, -0.005964383482933044, -0.0053214458748698235, -0.0046785082668066025, -0.004035570193082094, -0.003392632119357586, -0.002749694511294365, -0.0021067566704005003, -0.0014638188295066357, -0.000820880988612771, -0.0001779431477189064, 0.00046499469317495823, 0.0011079325340688229, 0.0017508706077933311, 0.002393806353211403, 0.0030367441941052675, 0.003679682034999132, 0.0043226201087236404, 0.004965557716786861, 0.005608495324850082, 0.006251433398574591, 0.006894371472299099, 0.00753730908036232, 0.008180246688425541, 0.008823184296488762, 0.009466122835874557, 0.010109060443937778, 0.010751998052001, 0.011394936591386795, 0.012037874199450016, 0.012680811807513237, 0.013323749415576458, 0.013966687023639679, 0.014609625563025475, 0.015252563171088696, 0.015895500779151917, 0.016538439318537712, 0.017181377857923508, 0.017824314534664154, 0.01846725307404995, 0.019110189750790596, 0.01975312829017639, 0.020396064966917038, 0.021039003506302834, 0.02168194204568863, 0.022324878722429276, 0.02296781726181507]}, "gradients/fc.bias": {"_type": "histogram", "values": [1.0, 0.0, 0.0, 0.0, 0.0, 0.0, 0.0, 0.0, 0.0, 0.0, 0.0, 0.0, 0.0, 0.0, 0.0, 0.0, 0.0, 0.0, 0.0, 0.0, 0.0, 0.0, 0.0, 0.0, 0.0, 0.0, 0.0, 0.0, 0.0, 0.0, 0.0, 0.0, 0.0, 0.0, 1.0, 0.0, 0.0, 4.0, 0.0, 1.0, 1.0, 0.0, 1.0, 0.0, 0.0, 0.0, 0.0, 0.0, 0.0, 0.0, 0.0, 0.0, 0.0, 0.0, 0.0, 0.0, 0.0, 0.0, 0.0, 0.0, 0.0, 0.0, 0.0, 1.0], "bins": [-0.00781629141420126, -0.0076049696654081345, -0.007393648382276297, -0.0071823266334831715, -0.006971004884690046, -0.0067596836015582085, -0.006548361852765083, -0.006337040103971958, -0.006125718355178833, -0.005914396606385708, -0.00570307532325387, -0.005491753574460745, -0.00528043182566762, -0.005069110542535782, -0.004857788793742657, -0.0046464670449495316, -0.004435145761817694, -0.0042238240130245686, -0.004012502729892731, -0.0038011809810996056, -0.0035898592323064804, -0.003378537716343999, -0.0031672162003815174, -0.0029558944515883923, -0.0027445731684565544, -0.002533251652494073, -0.0023219299037009478, -0.0021106083877384663, -0.001899286755360663, -0.0016879651229828596, -0.0014766436070203781, -0.0012653219746425748, -0.0010540001094341278, -0.0008426784770563245, -0.0006313569028861821, -0.00042003532871603966, -0.00020871369633823633, 2.6079360395669937e-06, 0.0002139294520020485, 0.0004252510843798518, 0.0006365729495882988, 0.0008478945819661021, 0.0010592162143439054, 0.001270537730306387, 0.0014818593626841903, 0.0016931809950619936, 0.001904502511024475, 0.0021158242598176003, 0.002327145542949438, 0.0025384670589119196, 0.0027497888077050447, 0.0029611103236675262, 0.0031724320724606514, 0.003383753588423133, 0.0035950751043856144, 0.0038063968531787395, 0.004017718136310577, 0.0042290398851037025, 0.00444036116823554, 0.0046516829170286655, 0.004863004665821791, 0.0050743259489536285, 0.005285647697746754, 0.005496969446539879, 0.005708291195333004]}, "gradients/fc.weight": {"_type": "histogram", "values": [1.0, 1.0, 0.0, 1.0, 1.0, 1.0, 3.0, 3.0, 1.0, 1.0, 1.0, 4.0, 2.0, 1.0, 1.0, 0.0, 2.0, 4.0, 1.0, 7.0, 6.0, 4.0, 6.0, 8.0, 4.0, 8.0, 13.0, 8.0, 11.0, 9.0, 19.0, 18.0, 30.0, 34.0, 30.0, 45.0, 83.0, 162.0, 497.0, 13448.0, 608.0, 197.0, 130.0, 63.0, 49.0, 35.0, 26.0, 13.0, 10.0, 9.0, 7.0, 12.0, 5.0, 7.0, 6.0, 2.0, 2.0, 4.0, 4.0, 5.0, 2.0, 1.0, 3.0, 1.0], "bins": [-0.03502654656767845, -0.03413642942905426, -0.03324631229043007, -0.03235619142651558, -0.03146607428789139, -0.030575957149267197, -0.029685840010643005, -0.028795722872018814, -0.027905603870749474, -0.027015486732125282, -0.026125367730855942, -0.02523525059223175, -0.02434513345360756, -0.02345501445233822, -0.022564897313714027, -0.021674778312444687, -0.020784661173820496, -0.019894544035196304, -0.019004425033926964, -0.018114307895302773, -0.017224188894033432, -0.01633407175540924, -0.01544395461678505, -0.014553836546838284, -0.013663718476891518, -0.012773600406944752, -0.011883482336997986, -0.010993365198373795, -0.010103247128427029, -0.009213129058480263, -0.008323011919856071, -0.007432893849909306, -0.006542777642607689, -0.005652659572660923, -0.004762541968375444, -0.003872424131259322, -0.0029823062941432, -0.002092188224196434, -0.0012020706199109554, -0.00031195301562547684, 0.0005781650543212891, 0.0014682828914374113, 0.0023584007285535336, 0.003248518565669656, 0.004138636402785778, 0.005028754472732544, 0.0059188720770180225, 0.006808989681303501, 0.007699107751250267, 0.008589225821197033, 0.009479343891143799, 0.01036946102976799, 0.011259579099714756, 0.012149697169661522, 0.013039814308285713, 0.013929932378232479, 0.014820050448179245, 0.015710167586803436, 0.016600286588072777, 0.017490403726696968, 0.01838052272796631, 0.0192706398665905, 0.02016075700521469, 0.021050874143838882, 0.021940993145108223]}, "gradients/layer2.0.weight": {"_type": "histogram", "values": [1.0, 0.0, 0.0, 0.0, 0.0, 0.0, 1.0, 2.0, 0.0, 1.0, 2.0, 9.0, 3.0, 4.0, 10.0, 7.0, 12.0, 22.0, 35.0, 32.0, 44.0, 94.0, 135.0, 197.0, 277.0, 453.0, 685.0, 1044.0, 1555.0, 4702.0, 1185.0, 647.0, 470.0, 332.0, 232.0, 150.0, 108.0, 74.0, 61.0, 49.0, 44.0, 28.0, 24.0, 12.0, 9.0, 16.0, 6.0, 4.0, 1.0, 3.0, 2.0, 2.0, 3.0, 1.0, 3.0, 3.0, 1.0, 0.0, 0.0, 1.0, 0.0, 0.0, 1.0, 1.0], "bins": [-0.005441682413220406, -0.0052571226842701435, -0.0050725629553198814, -0.004888002760708332, -0.00470344303175807, -0.004518883302807808, -0.0043343231081962585, -0.0041497633792459965, -0.003965203650295734, -0.0037806439213454723, -0.0035960839595645666, -0.003411523997783661, -0.003226964268833399, -0.0030424045398831367, -0.002857844578102231, -0.0026732846163213253, -0.0024887248873710632, -0.002304165158420801, -0.0021196051966398954, -0.0019350453512743115, -0.0017504855059087276, -0.0015659256605431437, -0.0013813658151775599, -0.001196805969811976, -0.001012246124446392, -0.0008276862790808082, -0.0006431264337152243, -0.00045856658834964037, -0.00027400674298405647, -8.944689761847258e-05, 9.511294774711132e-05, 0.0002796727931126952, 0.0004642331041395664, 0.0006487929495051503, 0.0008333527948707342, 0.0010179126402363181, 0.001202472485601902, 0.001387032330967486, 0.0015715921763330698, 0.0017561520216986537, 0.0019407118670642376, 0.0021252715960144997, 0.0023098315577954054, 0.002494391519576311, 0.002678951248526573, 0.0028635109774768353, 0.003048070939257741, 0.0032326309010386467, 0.0034171906299889088, 0.003601750358939171, 0.0037863103207200766, 0.003970870282500982, 0.004155430011451244, 0.004339989740401506, 0.0045245494693517685, 0.004709109663963318, 0.00489366939291358, 0.005078229121863842, 0.005262789316475391, 0.0054473490454256535, 0.0056319087743759155, 0.005816468503326178, 0.00600102823227644, 0.006185588426887989, 0.006370148155838251]}, "gradients/layer2.0.bias": {"_type": "histogram", "values": [1.0, 0.0, 0.0, 0.0, 0.0, 0.0, 0.0, 0.0, 0.0, 1.0, 0.0, 0.0, 0.0, 0.0, 0.0, 0.0, 2.0, 1.0, 0.0, 0.0, 0.0, 0.0, 1.0, 1.0, 0.0, 1.0, 0.0, 1.0, 2.0, 2.0, 2.0, 0.0, 1.0, 0.0, 1.0, 1.0, 1.0, 6.0, 0.0, 2.0, 1.0, 0.0, 2.0, 0.0, 0.0, 0.0, 1.0, 0.0, 0.0, 0.0, 0.0, 0.0, 0.0, 0.0, 0.0, 0.0, 0.0, 0.0, 0.0, 0.0, 0.0, 0.0, 0.0, 1.0], "bins": [-0.007192437071353197, -0.007001375779509544, -0.006810314022004604, -0.006619252730160952, -0.006428191438317299, -0.006237129680812359, -0.006046068388968706, -0.005855007097125053, -0.005663945339620113, -0.005472884047776461, -0.005281822290271521, -0.005090760998427868, -0.004899699706584215, -0.0047086384147405624, -0.004517576657235622, -0.00432651536539197, -0.004135454073548317, -0.003944392781704664, -0.003753331257030368, -0.0035622697323560715, -0.0033712084405124187, -0.0031801469158381224, -0.002989085391163826, -0.0027980240993201733, -0.0026069623418152332, -0.002415900817140937, -0.002224839525297284, -0.0020337780006229877, -0.0018427165923640132, -0.0016516551841050386, -0.0014605936594307423, -0.0012695322511717677, -0.0010784706100821495, -0.000887409201823175, -0.0006963477353565395, -0.000505286268889904, -0.00031422486063092947, -0.00012316345237195492, 6.789807230234146e-05, 0.000258959480561316, 0.0004500206559896469, 0.0006410820642486215, 0.0008321435307152569, 0.0010232049971818924, 0.001214266405440867, 0.0014053278136998415, 0.0015963893383741379, 0.0017874507466331124, 0.0019785123877227306, 0.002169573912397027, 0.0023606352042406797, 0.002551696728914976, 0.002742758020758629, 0.0029338195454329252, 0.0031248810701072216, 0.0033159423619508743, 0.0035070038866251707, 0.003698065411299467, 0.00388912670314312, 0.00408018846064806, 0.004271249752491713, 0.004462311044335365, 0.004653372801840305, 0.004844434093683958, 0.005035495385527611]}, "gradients/layer1.0.weight": {"_type": "histogram", "values": [1.0, 1.0, 0.0, 0.0, 0.0, 1.0, 0.0, 0.0, 0.0, 1.0, 0.0, 0.0, 0.0, 0.0, 0.0, 0.0, 0.0, 0.0, 0.0, 1.0, 0.0, 1.0, 1.0, 1.0, 0.0, 1.0, 0.0, 0.0, 3.0, 0.0, 2.0, 2.0, 2.0, 2.0, 5.0, 1.0, 8.0, 11.0, 14.0, 10.0, 25.0, 10.0, 26.0, 30.0, 31.0, 38.0, 49.0, 33.0, 30.0, 12.0, 11.0, 8.0, 7.0, 5.0, 2.0, 2.0, 1.0, 5.0, 1.0, 2.0, 0.0, 1.0, 0.0, 2.0], "bins": [-0.023380354046821594, -0.0228755883872509, -0.022370824590325356, -0.02186605893075466, -0.021361293271183968, -0.020856529474258423, -0.02035176381468773, -0.019846998155117035, -0.01934223249554634, -0.018837466835975647, -0.018332703039050102, -0.017827937379479408, -0.017323171719908714, -0.01681840792298317, -0.016313642263412476, -0.01580887660384178, -0.015304112806916237, -0.014799348078668118, -0.014294582419097424, -0.013789817690849304, -0.01328505203127861, -0.012780287303030491, -0.012275522574782372, -0.011770756915211678, -0.011265992186963558, -0.010761227458715439, -0.010256461799144745, -0.009751697070896626, -0.009246932342648506, -0.008742166683077812, -0.008237401954829693, -0.007732636760920286, -0.0072278715670108795, -0.006723106373101473, -0.006218341179192066, -0.005713576450943947, -0.00520881125703454, -0.0047040460631251335, -0.004199281334877014, -0.0036945161409676075, -0.003189750947058201, -0.002684985753148794, -0.002180220792070031, -0.0016754557145759463, -0.0011706906370818615, -0.0006659254431724548, -0.00016116048209369183, 0.0003436044789850712, 0.0008483696728944778, 0.0013531347503885627, 0.0018578998278826475, 0.0023626647889614105, 0.002867429982870817, 0.003372195176780224, 0.003876960137858987, 0.00438172509893775, 0.0048864902928471565, 0.005391255486756563, 0.00589602068066597, 0.006400785408914089, 0.006905550602823496, 0.0074103157967329025, 0.007915080524981022, 0.008419845253229141, 0.008924610912799835]}, "gradients/layer1.0.bias": {"_type": "histogram", "values": [1.0, 0.0, 0.0, 0.0, 0.0, 0.0, 0.0, 0.0, 0.0, 0.0, 0.0, 0.0, 0.0, 0.0, 0.0, 0.0, 0.0, 0.0, 0.0, 0.0, 0.0, 0.0, 0.0, 0.0, 0.0, 0.0, 0.0, 0.0, 0.0, 0.0, 0.0, 0.0, 0.0, 1.0, 0.0, 0.0, 1.0, 0.0, 1.0, 1.0, 0.0, 3.0, 1.0, 1.0, 1.0, 0.0, 0.0, 1.0, 0.0, 0.0, 0.0, 0.0, 0.0, 0.0, 1.0, 1.0, 1.0, 0.0, 0.0, 0.0, 0.0, 0.0, 0.0, 1.0], "bins": [-0.036713846027851105, -0.03583545610308647, -0.03495706990361214, -0.034078679978847504, -0.03320029377937317, -0.032321903854608536, -0.0314435176551342, -0.030565127730369568, -0.029686741530895233, -0.02880835346877575, -0.027929965406656265, -0.02705157734453678, -0.026173189282417297, -0.025294801220297813, -0.02441641315817833, -0.023538023233413696, -0.022659635171294212, -0.02178124710917473, -0.020902859047055244, -0.02002447098493576, -0.019146082922816277, -0.018267694860696793, -0.01738930493593216, -0.016510918736457825, -0.01563252881169319, -0.014754140749573708, -0.013875752687454224, -0.01299736462533474, -0.012118976563215256, -0.011240588501095772, -0.010362199507653713, -0.00948381144553423, -0.00860542617738247, -0.007727038115262985, -0.006848650053143501, -0.00597026152536273, -0.005091873463243246, -0.004213485401123762, -0.003335096873342991, -0.002456708811223507, -0.0015783216804265976, -0.0006999335018917918, 0.00017845467664301395, 0.0010568429715931416, 0.0019352310337126255, 0.0028136190958321095, 0.0036920076236128807, 0.004570395685732365, 0.005448784679174423, 0.006327172741293907, 0.007205560803413391, 0.008083948865532875, 0.008962336927652359, 0.009840724989771843, 0.010719113983213902, 0.011597502045333385, 0.01247589010745287, 0.013354278169572353, 0.014232666231691837, 0.015111055225133896, 0.01598944328725338, 0.016867831349372864, 0.017746219411492348, 0.01862460747361183, 0.019502995535731316]}, "_runtime": 92.86946177482605, "_step": 57344, "epoch": 4, "loss": 0.08320216834545135, "test_accuracy": 0.9775, "_wandb": {"runtime": 92}}