{"parameters/layer1.0.weight": {"_type": "histogram", "values": [1.0, 1.0, 0.0, 2.0, 2.0, 1.0, 1.0, 5.0, 1.0, 4.0, 10.0, 7.0, 9.0, 7.0, 11.0, 13.0, 7.0, 9.0, 11.0, 3.0, 10.0, 5.0, 8.0, 15.0, 11.0, 5.0, 6.0, 4.0, 5.0, 6.0, 6.0, 9.0, 9.0, 10.0, 4.0, 6.0, 9.0, 6.0, 7.0, 11.0, 4.0, 2.0, 11.0, 4.0, 8.0, 6.0, 6.0, 10.0, 6.0, 12.0, 6.0, 6.0, 9.0, 6.0, 4.0, 9.0, 4.0, 10.0, 10.0, 4.0, 4.0, 1.0, 0.0, 1.0], "bins": [-0.2587152123451233, -0.25035396218299866, -0.24199272692203522, -0.23363149166107178, -0.22527024149894714, -0.2169090062379837, -0.20854777097702026, -0.20018652081489563, -0.1918252855539322, -0.18346405029296875, -0.17510280013084412, -0.16674156486988068, -0.15838032960891724, -0.1500190794467926, -0.14165784418582916, -0.13329660892486572, -0.12493535876274109, -0.11657411605119705, -0.10821287333965302, -0.09985163807868958, -0.09149039536714554, -0.0831291526556015, -0.07476791739463806, -0.06640667468309402, -0.05804543197154999, -0.04968418926000595, -0.04132295027375221, -0.032961711287498474, -0.024600468575954437, -0.0162392258644104, -0.007877986878156662, 0.0004832521080970764, 0.008844494819641113, 0.01720573566854, 0.02556697651743889, 0.03392821550369263, 0.042289458215236664, 0.0506507009267807, 0.05901193991303444, 0.06737317889928818, 0.07573442161083221, 0.08409566432237625, 0.09245690703392029, 0.10081814229488373, 0.10917938500642776, 0.1175406277179718, 0.12590186297893524, 0.13426309823989868, 0.14262434840202332, 0.15098558366298676, 0.1593468338251114, 0.16770806908607483, 0.17606931924819946, 0.1844305545091629, 0.19279178977012634, 0.20115303993225098, 0.20951427519321442, 0.21787551045417786, 0.2262367606163025, 0.23459799587726593, 0.24295923113822937, 0.251320481300354, 0.25968173146247864, 0.2680429518222809, 0.2764042019844055]}, "_timestamp": 1676003107.3964767, "parameters/layer1.0.bias": {"_type": "histogram", "values": [1.0, 1.0, 0.0, 0.0, 0.0, 0.0, 1.0, 0.0, 0.0, 0.0, 1.0, 0.0, 0.0, 1.0, 0.0, 0.0, 1.0, 0.0, 0.0, 0.0, 0.0, 0.0, 1.0, 0.0, 1.0, 0.0, 0.0, 0.0, 0.0, 0.0, 0.0, 0.0, 0.0, 0.0, 0.0, 0.0, 0.0, 0.0, 1.0, 0.0, 0.0, 0.0, 1.0, 1.0, 1.0, 0.0, 0.0, 0.0, 0.0, 0.0, 0.0, 0.0, 1.0, 0.0, 0.0, 0.0, 0.0, 1.0, 0.0, 0.0, 0.0, 0.0, 1.0, 1.0], "bins": [-0.13817930221557617, -0.13363927602767944, -0.12909924983978271, -0.12455921620130539, -0.12001918256282806, -0.11547915637493134, -0.1109391301870346, -0.10639910399913788, -0.10185907036066055, -0.09731904417276382, -0.0927790105342865, -0.08823898434638977, -0.08369895815849304, -0.07915892452001572, -0.07461889833211899, -0.07007886469364166, -0.06553883850574493, -0.06099880859255791, -0.05645877867937088, -0.05191875249147415, -0.047378722578287125, -0.0428386926651001, -0.03829866647720337, -0.03375863656401634, -0.029218606650829315, -0.024678576737642288, -0.02013854868710041, -0.015598519705235958, -0.011058490723371506, -0.006518460810184479, -0.001978432759642601, 0.0025615952908992767, 0.0071016401052474976, 0.01164166908711195, 0.016181698068976402, 0.02072172611951828, 0.025261756032705307, 0.029801785945892334, 0.03434181213378906, 0.03888184204697609, 0.043421871960163116, 0.04796190187335014, 0.05250193178653717, 0.0570419579744339, 0.061581987887620926, 0.06612201780080795, 0.07066204398870468, 0.075202077627182, 0.07974210381507874, 0.08428213000297546, 0.08882216364145279, 0.09336218982934952, 0.09790222346782684, 0.10244224965572357, 0.1069822758436203, 0.11152230203151703, 0.11606233566999435, 0.12060236185789108, 0.1251423954963684, 0.12968242168426514, 0.13422244787216187, 0.1387624740600586, 0.14330251514911652, 0.14784254133701324, 0.15238256752490997]}, "parameters/layer2.0.weight": {"_type": "histogram", "values": [5.0, 0.0, 3.0, 10.0, 7.0, 24.0, 28.0, 39.0, 32.0, 49.0, 84.0, 99.0, 143.0, 178.0, 182.0, 217.0, 214.0, 245.0, 289.0, 253.0, 307.0, 314.0, 319.0, 363.0, 342.0, 395.0, 402.0, 367.0, 412.0, 443.0, 394.0, 398.0, 423.0, 444.0, 390.0, 415.0, 389.0, 413.0, 393.0, 299.0, 298.0, 278.0, 267.0, 288.0, 226.0, 219.0, 220.0, 176.0, 182.0, 154.0, 154.0, 121.0, 113.0, 91.0, 82.0, 62.0, 44.0, 38.0, 22.0, 14.0, 10.0, 7.0, 8.0, 3.0], "bins": [-0.12356243282556534, -0.1197541207075119, -0.11594580113887787, -0.11213748902082443, -0.1083291694521904, -0.10452085733413696, -0.10071253776550293, -0.0969042256474495, -0.09309591352939606, -0.08928760141134262, -0.08547928184270859, -0.08167096972465515, -0.07786265015602112, -0.07405433803796768, -0.07024602591991425, -0.06643770635128021, -0.06262938678264618, -0.058821070939302444, -0.05501275509595871, -0.05120444297790527, -0.04739612340927124, -0.043587811291217804, -0.03977949544787407, -0.035971179604530334, -0.0321628674864769, -0.028354551643133163, -0.02454623579978943, -0.020737921819090843, -0.01692960597574711, -0.013121290132403374, -0.009312976151704788, -0.0055046603083610535, -0.0016963407397270203, 0.002111974637955427, 0.005920290015637875, 0.009728604927659035, 0.01353692077100277, 0.017345236614346504, 0.02115355059504509, 0.024961866438388824, 0.028770186007022858, 0.03257850185036659, 0.03638681769371033, 0.04019512981176376, 0.0440034493803978, 0.04781176149845123, 0.05162007734179497, 0.0554283931851387, 0.05923670530319214, 0.06304501742124557, 0.06685333698987961, 0.07066164910793304, 0.07446996867656708, 0.07827828079462051, 0.08208659291267395, 0.08589491248130798, 0.08970323204994202, 0.09351154416799545, 0.09731986373662949, 0.10112817585468292, 0.10493649542331696, 0.10874480754137039, 0.11255311965942383, 0.11636143922805786, 0.1201697513461113]}, "parameters/layer2.0.bias": {"_type": "histogram", "values": [1.0, 0.0, 0.0, 0.0, 1.0, 0.0, 1.0, 0.0, 0.0, 1.0, 0.0, 0.0, 0.0, 0.0, 1.0, 1.0, 0.0, 3.0, 0.0, 0.0, 0.0, 0.0, 1.0, 0.0, 0.0, 3.0, 0.0, 1.0, 0.0, 1.0, 1.0, 0.0, 1.0, 0.0, 1.0, 1.0, 0.0, 0.0, 2.0, 1.0, 0.0, 1.0, 1.0, 0.0, 1.0, 0.0, 0.0, 1.0, 0.0, 0.0, 0.0, 0.0, 0.0, 0.0, 0.0, 0.0, 0.0, 0.0, 0.0, 3.0, 0.0, 0.0, 1.0, 2.0], "bins": [-0.06163083389401436, -0.05989157781004906, -0.058152321726083755, -0.056413065642118454, -0.05467380955815315, -0.05293455347418785, -0.05119529739022255, -0.04945604130625725, -0.047716785222291946, -0.045977529138326645, -0.04423827305436134, -0.04249901697039604, -0.04075976088643074, -0.03902050480246544, -0.03728124871850014, -0.035541992634534836, -0.033802736550569534, -0.03206348046660423, -0.03032422438263893, -0.02858496829867363, -0.026845712214708328, -0.025106456130743027, -0.023367200046777725, -0.021627943962812424, -0.019888687878847122, -0.01814943179488182, -0.01641017571091652, -0.014670919626951218, -0.012931663542985916, -0.011192407459020615, -0.009453151375055313, -0.007713895291090012, -0.0059746429324150085, -0.004235386848449707, -0.0024961307644844055, -0.000756874680519104, 0.0009823814034461975, 0.002721637487411499, 0.0044608935713768005, 0.006200149655342102, 0.007939405739307404, 0.009678661823272705, 0.011417917907238007, 0.013157173991203308, 0.01489643007516861, 0.01663568615913391, 0.018374942243099213, 0.020114198327064514, 0.021853454411029816, 0.023592710494995117, 0.02533196657896042, 0.02707122266292572, 0.02881047874689102, 0.030549734830856323, 0.032288990914821625, 0.034028246998786926, 0.03576750308275223, 0.03750675916671753, 0.03924601525068283, 0.04098527133464813, 0.042724527418613434, 0.044463783502578735, 0.04620303958654404, 0.04794229567050934, 0.04968155175447464]}, "parameters/fc.weight": {"_type": "histogram", "values": [2.0, 1.0, 5.0, 9.0, 6.0, 16.0, 30.0, 24.0, 39.0, 57.0, 68.0, 78.0, 78.0, 111.0, 145.0, 149.0, 192.0, 250.0, 325.0, 313.0, 307.0, 378.0, 365.0, 422.0, 462.0, 481.0, 537.0, 565.0, 576.0, 545.0, 595.0, 592.0, 591.0, 565.0, 539.0, 574.0, 544.0, 561.0, 482.0, 485.0, 447.0, 431.0, 364.0, 375.0, 278.0, 265.0, 241.0, 212.0, 217.0, 193.0, 159.0, 98.0, 73.0, 63.0, 65.0, 42.0, 32.0, 20.0, 16.0, 10.0, 3.0, 5.0, 3.0, 4.0], "bins": [-0.10233049094676971, -0.09929689764976501, -0.09626331180334091, -0.09322971850633621, -0.09019613265991211, -0.08716253936290741, -0.08412894606590271, -0.08109536021947861, -0.0780617743730545, -0.0750281810760498, -0.0719945952296257, -0.068961001932621, -0.0659274160861969, -0.0628938227891922, -0.0598602332174778, -0.0568266436457634, -0.0537930503487587, -0.050759460777044296, -0.047725871205329895, -0.044692277908325195, -0.04165869206190109, -0.03862509876489639, -0.03559150919318199, -0.03255791962146759, -0.02952432632446289, -0.02649073675274849, -0.023457147181034088, -0.020423555746674538, -0.017389966174960136, -0.014356376603245735, -0.011322785168886185, -0.008289195597171783, -0.005255602300167084, -0.002222012262791395, 0.0008115777745842934, 0.0038451682776212692, 0.0068787578493356705, 0.009912347421050072, 0.012945938855409622, 0.015979528427124023, 0.019013114273548126, 0.022046703845262527, 0.02508029341697693, 0.02811388485133648, 0.03114747442305088, 0.03418106585741043, 0.03721465542912483, 0.04024824500083923, 0.04328183829784393, 0.046315427869558334, 0.049349017441272736, 0.052382610738277435, 0.05541619658470154, 0.05844978988170624, 0.06148337945342064, 0.06451696902513504, 0.06755055487155914, 0.07058414816856384, 0.07361773401498795, 0.07665132731199265, 0.07968491315841675, 0.08271850645542145, 0.08575209975242615, 0.08878568559885025, 0.09181927889585495]}, "parameters/fc.bias": {"_type": "histogram", "values": [1.0, 0.0, 0.0, 0.0, 0.0, 0.0, 0.0, 0.0, 0.0, 0.0, 0.0, 0.0, 0.0, 0.0, 0.0, 0.0, 1.0, 0.0, 0.0, 0.0, 0.0, 0.0, 0.0, 0.0, 0.0, 1.0, 0.0, 1.0, 0.0, 0.0, 0.0, 0.0, 2.0, 0.0, 0.0, 0.0, 0.0, 0.0, 0.0, 1.0, 0.0, 0.0, 0.0, 0.0, 0.0, 0.0, 0.0, 0.0, 0.0, 0.0, 0.0, 0.0, 0.0, 0.0, 1.0, 0.0, 0.0, 0.0, 0.0, 0.0, 0.0, 0.0, 1.0, 1.0], "bins": [-0.026539206504821777, -0.025481194257736206, -0.024423180148005486, -0.023365166038274765, -0.022307153791189194, -0.021249141544103622, -0.020191127434372902, -0.01913311332464218, -0.01807510107755661, -0.01701708883047104, -0.01595907472074032, -0.014901061542332172, -0.013843048363924026, -0.01278503518551588, -0.011727022007107735, -0.010669008828699589, -0.009610995650291443, -0.008552982471883297, -0.007494969293475151, -0.006436956115067005, -0.005378942936658859, -0.004320929758250713, -0.0032629165798425674, -0.0022049034014344215, -0.0011468902230262756, -8.887704461812973e-05, 0.0009691361337900162, 0.002027149312198162, 0.003085162490606308, 0.004143175669014454, 0.0052011888474226, 0.006259202025830746, 0.007317211478948593, 0.008375224657356739, 0.009433237835764885, 0.01049125101417303, 0.011549264192581177, 0.012607277370989323, 0.013665290549397469, 0.014723303727805614, 0.01578131690621376, 0.01683932915329933, 0.017897343263030052, 0.018955357372760773, 0.020013369619846344, 0.021071381866931915, 0.022129395976662636, 0.023187410086393356, 0.024245422333478928, 0.0253034345805645, 0.02636144869029522, 0.02741946280002594, 0.02847747504711151, 0.029535487294197083, 0.030593501403927803, 0.031651515513658524, 0.032709527760744095, 0.033767540007829666, 0.034825555980205536, 0.03588356822729111, 0.03694158047437668, 0.03799959272146225, 0.03905760496854782, 0.04011562094092369, 0.04117363318800926]}, "gradients/fc.bias": {"_type": "histogram", "values": [1.0, 0.0, 0.0, 0.0, 0.0, 0.0, 2.0, 0.0, 0.0, 0.0, 0.0, 0.0, 0.0, 0.0, 1.0, 0.0, 0.0, 1.0, 0.0, 0.0, 0.0, 0.0, 0.0, 0.0, 0.0, 1.0, 0.0, 0.0, 0.0, 0.0, 0.0, 0.0, 0.0, 1.0, 0.0, 0.0, 0.0, 0.0, 0.0, 0.0, 0.0, 0.0, 0.0, 0.0, 0.0, 0.0, 0.0, 1.0, 0.0, 0.0, 0.0, 0.0, 0.0, 0.0, 0.0, 1.0, 0.0, 0.0, 0.0, 0.0, 0.0, 0.0, 0.0, 1.0], "bins": [-0.04103342816233635, -0.03951696306467056, -0.03800049424171448, -0.03648402914404869, -0.034967564046382904, -0.03345109894871712, -0.03193463385105133, -0.030418165028095245, -0.02890169993042946, -0.027385234832763672, -0.025868767872452736, -0.0243523009121418, -0.022835835814476013, -0.021319370716810226, -0.01980290375649929, -0.018286436796188354, -0.016769971698522568, -0.015253505669534206, -0.013737039640545845, -0.012220573611557484, -0.010704107582569122, -0.009187641553580761, -0.0076711755245924, -0.006154709495604038, -0.004638243466615677, -0.0031217774376273155, -0.0016053114086389542, -8.88453796505928e-05, 0.0014276206493377686, 0.00294408667832613, 0.004460552707314491, 0.005977018736302853, 0.0074934810400009155, 0.009009947068989277, 0.010526413097977638, 0.012042879126966, 0.013559345155954361, 0.015075811184942722, 0.016592277213931084, 0.01810874417424202, 0.019625209271907806, 0.021141674369573593, 0.02265814132988453, 0.024174608290195465, 0.025691073387861252, 0.02720753848552704, 0.028724005445837975, 0.03024047240614891, 0.0317569375038147, 0.033273402601480484, 0.03478986769914627, 0.036306336522102356, 0.03782280161976814, 0.03933926671743393, 0.040855735540390015, 0.0423722006380558, 0.04388866573572159, 0.045405130833387375, 0.04692159593105316, 0.04843806475400925, 0.049954529851675034, 0.05147099494934082, 0.052987463772296906, 0.05450392886996269, 0.05602039396762848]}, "gradients/fc.weight": {"_type": "histogram", "values": [2.0, 1.0, 3.0, 4.0, 9.0, 10.0, 17.0, 16.0, 29.0, 40.0, 24.0, 48.0, 49.0, 50.0, 64.0, 79.0, 93.0, 122.0, 146.0, 161.0, 206.0, 234.0, 285.0, 316.0, 464.0, 568.0, 923.0, 6704.0, 1813.0, 747.0, 460.0, 301.0, 253.0, 175.0, 175.0, 143.0, 120.0, 99.0, 104.0, 74.0, 57.0, 65.0, 69.0, 45.0, 41.0, 36.0, 21.0, 29.0, 32.0, 30.0, 20.0, 16.0, 22.0, 10.0, 14.0, 6.0, 6.0, 10.0, 6.0, 6.0, 3.0, 1.0, 2.0, 2.0], "bins": [-0.1351773589849472, -0.13032834231853485, -0.1254793107509613, -0.12063029408454895, -0.1157812774181366, -0.11093226075172424, -0.10608323663473129, -0.10123421251773834, -0.09638519585132599, -0.09153617918491364, -0.08668715506792068, -0.08183813095092773, -0.07698911428451538, -0.07214009761810303, -0.06729107350111008, -0.062442053109407425, -0.05759303271770477, -0.05274401232600212, -0.04789499193429947, -0.04304597154259682, -0.038196951150894165, -0.03334793075919151, -0.02849891036748886, -0.02364988997578621, -0.018800869584083557, -0.013951849192380905, -0.009102828800678253, -0.004253808408975601, 0.0005952119827270508, 0.005444232374429703, 0.010293252766132355, 0.015142273157835007, 0.019991308450698853, 0.024840328842401505, 0.029689349234104156, 0.03453836962580681, 0.03938739001750946, 0.04423641040921211, 0.049085430800914764, 0.053934451192617416, 0.05878347158432007, 0.06363248825073242, 0.06848151236772537, 0.07333053648471832, 0.07817955315113068, 0.08302856981754303, 0.08787759393453598, 0.09272661805152893, 0.09757563471794128, 0.10242465138435364, 0.10727367550134659, 0.11212269961833954, 0.11697171628475189, 0.12182073295116425, 0.1266697645187378, 0.13151878118515015, 0.1363677978515625, 0.14121681451797485, 0.1460658311843872, 0.15091486275196075, 0.1557638794183731, 0.16061289608478546, 0.165461927652359, 0.17031094431877136, 0.17515996098518372]}, "gradients/layer2.0.weight": {"_type": "histogram", "values": [4.0, 6.0, 1.0, 3.0, 9.0, 10.0, 14.0, 17.0, 18.0, 28.0, 23.0, 30.0, 37.0, 57.0, 79.0, 104.0, 126.0, 189.0, 240.0, 290.0, 389.0, 515.0, 651.0, 658.0, 3281.0, 953.0, 901.0, 827.0, 670.0, 575.0, 434.0, 359.0, 277.0, 219.0, 143.0, 119.0, 98.0, 85.0, 62.0, 56.0, 53.0, 29.0, 31.0, 22.0, 36.0, 16.0, 11.0, 10.0, 4.0, 9.0, 2.0, 4.0, 5.0, 2.0, 1.0, 3.0, 1.0, 2.0, 0.0, 1.0, 0.0, 0.0, 0.0, 1.0], "bins": [-0.033084239810705185, -0.03171563521027565, -0.030347032472491264, -0.02897842973470688, -0.027609825134277344, -0.02624122053384781, -0.024872617796063423, -0.023504015058279037, -0.022135410457849503, -0.020766805857419968, -0.019398203119635582, -0.018029600381851196, -0.01666099578142166, -0.015292392112314701, -0.01392378844320774, -0.01255518477410078, -0.01118658110499382, -0.00981797743588686, -0.0084493737667799, -0.007080770097672939, -0.005712166428565979, -0.004343562759459019, -0.0029749590903520584, -0.0016063554212450981, -0.00023775175213813782, 0.0011308519169688225, 0.0024994555860757828, 0.003868059255182743, 0.005236662924289703, 0.006605266593396664, 0.007973870262503624, 0.009342473931610584, 0.010711073875427246, 0.012079677544534206, 0.013448281213641167, 0.014816884882748127, 0.016185488551855087, 0.017554093152284622, 0.018922695890069008, 0.020291298627853394, 0.02165990322828293, 0.023028507828712463, 0.02439711056649685, 0.025765713304281235, 0.02713431790471077, 0.028502922505140305, 0.02987152524292469, 0.031240127980709076, 0.03260873258113861, 0.033977337181568146, 0.03534594178199768, 0.03671454265713692, 0.03808314725756645, 0.03945175185799599, 0.04082035273313522, 0.04218895733356476, 0.04355756193399429, 0.04492616653442383, 0.04629477113485336, 0.0476633720099926, 0.049031976610422134, 0.05040058121085167, 0.051769182085990906, 0.05313778668642044, 0.054506391286849976]}, "gradients/layer2.0.bias": {"_type": "histogram", "values": [1.0, 0.0, 0.0, 1.0, 0.0, 1.0, 0.0, 0.0, 0.0, 0.0, 0.0, 1.0, 0.0, 0.0, 0.0, 1.0, 0.0, 0.0, 0.0, 0.0, 1.0, 0.0, 0.0, 1.0, 1.0, 0.0, 1.0, 0.0, 0.0, 0.0, 0.0, 0.0, 6.0, 1.0, 0.0, 1.0, 1.0, 0.0, 1.0, 1.0, 0.0, 0.0, 2.0, 0.0, 1.0, 0.0, 0.0, 1.0, 2.0, 1.0, 0.0, 0.0, 0.0, 0.0, 2.0, 0.0, 0.0, 0.0, 0.0, 0.0, 1.0, 0.0, 1.0, 1.0], "bins": [-0.060818757861852646, -0.058969177305698395, -0.057119596749544144, -0.05527001619338989, -0.05342043936252594, -0.05157085880637169, -0.04972127825021744, -0.04787169769406319, -0.046022117137908936, -0.044172536581754684, -0.04232295602560043, -0.04047337919473648, -0.03862379863858223, -0.03677421808242798, -0.03492463752627373, -0.033075056970119476, -0.031225480139255524, -0.029375899583101273, -0.02752632088959217, -0.02567674033343792, -0.023827161639928818, -0.021977581083774567, -0.020128000527620316, -0.018278419971466064, -0.016428839415311813, -0.014579259790480137, -0.01272968016564846, -0.01088009960949421, -0.009030519984662533, -0.007180940359830856, -0.005331359803676605, -0.0034817801788449287, -0.0016322061419487, 0.00021737371571362019, 0.0020669535733759403, 0.003916533663868904, 0.005766113288700581, 0.007615692913532257, 0.009465273469686508, 0.011314853094518185, 0.013164430856704712, 0.015014010481536388, 0.016863590106368065, 0.018713170662522316, 0.020562749356031418, 0.02241232991218567, 0.02426191046833992, 0.02611149102449417, 0.027961071580648422, 0.029810652136802673, 0.031660232692956924, 0.033509813249111176, 0.03535939007997513, 0.03720897063612938, 0.03905855119228363, 0.04090813174843788, 0.04275771230459213, 0.044607292860746384, 0.046456873416900635, 0.04830645024776459, 0.05015603080391884, 0.05200561136007309, 0.05385519191622734, 0.05570477247238159, 0.057554349303245544]}, "gradients/layer1.0.weight": {"_type": "histogram", "values": [1.0, 1.0, 0.0, 0.0, 0.0, 0.0, 1.0, 1.0, 1.0, 2.0, 4.0, 5.0, 1.0, 2.0, 3.0, 3.0, 2.0, 2.0, 4.0, 5.0, 7.0, 6.0, 5.0, 5.0, 7.0, 3.0, 11.0, 19.0, 15.0, 22.0, 19.0, 10.0, 9.0, 8.0, 18.0, 14.0, 11.0, 12.0, 15.0, 8.0, 14.0, 11.0, 8.0, 13.0, 12.0, 12.0, 9.0, 11.0, 6.0, 6.0, 8.0, 4.0, 3.0, 5.0, 2.0, 1.0, 1.0, 3.0, 2.0, 1.0, 0.0, 2.0, 2.0, 2.0], "bins": [-0.0717492327094078, -0.06947171688079834, -0.06719420850276947, -0.06491669267416, -0.06263918429613113, -0.06036166846752167, -0.0580841563642025, -0.05580664426088333, -0.05352913215756416, -0.051251620054244995, -0.04897410795092583, -0.04669659584760666, -0.04441908001899719, -0.04214157164096832, -0.039864055812358856, -0.03758654370903969, -0.03530903160572052, -0.03303151950240135, -0.030754007399082184, -0.028476493433117867, -0.0261989813297987, -0.02392146922647953, -0.021643955260515213, -0.019366443157196045, -0.017088931053876877, -0.014811418950557709, -0.012533905915915966, -0.010256392881274223, -0.007978880777955055, -0.005701368674635887, -0.0034238556399941444, -0.0011463426053524017, 0.0011311694979667664, 0.0034086820669472218, 0.005686194635927677, 0.00796370767056942, 0.010241219773888588, 0.012518731877207756, 0.014796244911849499, 0.01707375794649124, 0.01935127004981041, 0.021628782153129578, 0.023906294256448746, 0.026183808222413063, 0.02846132032573223, 0.0307388324290514, 0.03301634639501572, 0.035293858498334885, 0.03757137060165405, 0.03984888270497322, 0.04212639480829239, 0.04440390691161156, 0.046681419014930725, 0.04895893484354019, 0.05123644694685936, 0.05351395905017853, 0.055791471153497696, 0.058068983256816864, 0.06034649536013603, 0.0626240074634552, 0.06490152329206467, 0.06717903167009354, 0.069456547498703, 0.07173405587673187, 0.07401157170534134]}, "gradients/layer1.0.bias": {"_type": "histogram", "values": [1.0, 0.0, 0.0, 0.0, 0.0, 0.0, 0.0, 0.0, 0.0, 0.0, 1.0, 0.0, 0.0, 0.0, 1.0, 1.0, 0.0, 0.0, 1.0, 0.0, 0.0, 1.0, 0.0, 0.0, 1.0, 0.0, 0.0, 0.0, 1.0, 1.0, 0.0, 0.0, 0.0, 0.0, 1.0, 0.0, 0.0, 0.0, 0.0, 0.0, 0.0, 0.0, 1.0, 0.0, 0.0, 0.0, 0.0, 0.0, 0.0, 1.0, 0.0, 1.0, 1.0, 1.0, 0.0, 0.0, 0.0, 0.0, 0.0, 0.0, 0.0, 0.0, 0.0, 1.0], "bins": [-0.09955870360136032, -0.09652978181838989, -0.09350086748600006, -0.09047194570302963, -0.0874430239200592, -0.08441410958766937, -0.08138518780469894, -0.07835626602172852, -0.07532735168933868, -0.07229842990636826, -0.06926951557397842, -0.066240593791008, -0.06321167200803757, -0.06018275395035744, -0.05715383589267731, -0.05412491410970688, -0.05109599232673645, -0.04806707426905632, -0.04503815248608589, -0.04200923442840576, -0.03898031264543533, -0.0359513945877552, -0.03292247653007507, -0.029893556609749794, -0.026864640414714813, -0.023835720494389534, -0.020806800574064255, -0.017777882516384125, -0.014748962596058846, -0.011720042675733566, -0.008691124618053436, -0.005662204697728157, -0.0026332736015319824, 0.0003956458531320095, 0.0034245653077960014, 0.006453484296798706, 0.009482404217123985, 0.012511324137449265, 0.015540242195129395, 0.018569162115454674, 0.02159808576107025, 0.02462700568139553, 0.02765592560172081, 0.03068484365940094, 0.03371376544237137, 0.0367426835000515, 0.03977160155773163, 0.04280052334070206, 0.04582943767309189, 0.04885835573077202, 0.05188727751374245, 0.05491619557142258, 0.057945117354393005, 0.060974035412073135, 0.06400295346975327, 0.0670318752527237, 0.07006078958511353, 0.07308971136808395, 0.07611862570047379, 0.07914754748344421, 0.08217646926641464, 0.08520539104938507, 0.0882343053817749, 0.09126322716474533, 0.09429214894771576]}, "_runtime": 8.262510776519775, "_step": 0, "_wandb": {"runtime": 8}}